<?xml version="1.0"?>
<opencv_storage>
<stage11>
  <maxWeakCount>17</maxWeakCount>
  <stageThreshold>-9.0512472391128540e-01</stageThreshold>
  <weakClassifiers>
    <_>
      <internalNodes>
        0 -1 81392 2.0659703761339188e-02</internalNodes>
      <leafValues>
        -2.3571428656578064e-01 4.5230770111083984e-01</leafValues></_>
    <_>
      <internalNodes>
        0 -1 60200 -6.2715783715248108e-03</internalNodes>
      <leafValues>
        4.2895436286926270e-01 -1.6329377889633179e-01</leafValues></_>
    <_>
      <internalNodes>
        0 -1 140087 2.5456084404140711e-03</internalNodes>
      <leafValues>
        -2.2878405451774597e-01 4.3505069613456726e-01</leafValues></_>
    <_>
      <internalNodes>
        0 -1 22051 -4.6247146092355251e-03</internalNodes>
      <leafValues>
        2.0947024226188660e-01 -5.2891725301742554e-01</leafValues></_>
    <_>
      <internalNodes>
        0 -1 162256 -2.2617815993726254e-03</internalNodes>
      <leafValues>
        -2.7191823720932007e-01 3.0602359771728516e-01</leafValues></_>
    <_>
      <internalNodes>
        0 -1 143997 -2.2309366613626480e-02</internalNodes>
      <leafValues>
        -1.8544396758079529e-01 5.0448191165924072e-01</leafValues></_>
    <_>
      <internalNodes>
        0 -1 147044 -4.5689395628869534e-03</internalNodes>
      <leafValues>
        1.3072597980499268e-01 -7.3242354393005371e-01</leafValues></_>
    <_>
      <internalNodes>
        0 -1 39967 -5.6486148387193680e-03</internalNodes>
      <leafValues>
        5.2571767568588257e-01 -1.5926551818847656e-01</leafValues></_>
    <_>
      <internalNodes>
        0 -1 143773 2.7020336128771305e-03</internalNodes>
      <leafValues>
        -1.0356567800045013e-01 5.6412059068679810e-01</leafValues></_>
    <_>
      <internalNodes>
        0 -1 118305 -6.8026490043848753e-04</internalNodes>
      <leafValues>
        -6.9758421182632446e-01 1.1283126473426819e-01</leafValues></_>
    <_>
      <internalNodes>
        0 -1 52118 1.2075364356860518e-03</internalNodes>
      <leafValues>
        -2.1819627285003662e-01 3.6042240262031555e-01</leafValues></_>
    <_>
      <internalNodes>
        0 -1 154466 3.7195379845798016e-03</internalNodes>
      <leafValues>
        -1.4685176312923431e-01 5.9539848566055298e-01</leafValues></_>
    <_>
      <internalNodes>
        0 -1 85499 7.9434271901845932e-03</internalNodes>
      <leafValues>
        1.3426759839057922e-01 -7.7299243211746216e-01</leafValues></_>
    <_>
      <internalNodes>
        0 -1 116800 5.3294664248824120e-03</internalNodes>
      <leafValues>
        -2.5909712910652161e-01 3.1789833307266235e-01</leafValues></_>
    <_>
      <internalNodes>
        0 -1 120988 -2.3180106654763222e-02</internalNodes>
      <leafValues>
        7.0333552360534668e-01 -1.1630816757678986e-01</leafValues></_>
    <_>
      <internalNodes>
        0 -1 85444 -2.9042840469628572e-03</internalNodes>
      <leafValues>
        -5.9322643280029297e-01 1.5345498919487000e-01</leafValues></_>
    <_>
      <internalNodes>
        0 -1 25790 -4.7731362283229828e-03</internalNodes>
      <leafValues>
        4.1583120822906494e-01 -2.2127069532871246e-01</leafValues></_></weakClassifiers></stage11>
</opencv_storage>
