<?xml version="1.0"?>
<opencv_storage>
<stage27>
  <maxWeakCount>23</maxWeakCount>
  <stageThreshold>-7.8028738498687744e-01</stageThreshold>
  <weakClassifiers>
    <_>
      <internalNodes>
        0 -1 90476 5.5952817201614380e-02</internalNodes>
      <leafValues>
        -1.3392856717109680e-01 4.9295774102210999e-01</leafValues></_>
    <_>
      <internalNodes>
        0 -1 25619 -2.4008976761251688e-03</internalNodes>
      <leafValues>
        2.7746504545211792e-01 -1.8380524218082428e-01</leafValues></_>
    <_>
      <internalNodes>
        0 -1 106620 -2.8457885608077049e-02</internalNodes>
      <leafValues>
        5.9031230211257935e-01 -1.1061040312051773e-01</leafValues></_>
    <_>
      <internalNodes>
        0 -1 8159 -7.8326098620891571e-02</internalNodes>
      <leafValues>
        -9.2827600240707397e-01 7.8924044966697693e-02</leafValues></_>
    <_>
      <internalNodes>
        0 -1 139204 5.3722155280411243e-04</internalNodes>
      <leafValues>
        -1.6503341495990753e-01 3.2707491517066956e-01</leafValues></_>
    <_>
      <internalNodes>
        0 -1 156329 6.5338448621332645e-05</internalNodes>
      <leafValues>
        -2.0996123552322388e-01 2.5558206439018250e-01</leafValues></_>
    <_>
      <internalNodes>
        0 -1 85195 3.3792713657021523e-03</internalNodes>
      <leafValues>
        1.0033769160509109e-01 -5.2603369951248169e-01</leafValues></_>
    <_>
      <internalNodes>
        0 -1 10630 1.2766203144565225e-03</internalNodes>
      <leafValues>
        -2.1769210696220398e-01 2.9560768604278564e-01</leafValues></_>
    <_>
      <internalNodes>
        0 -1 11942 -1.2728365138173103e-02</internalNodes>
      <leafValues>
        4.5622560381889343e-01 -1.4266331493854523e-01</leafValues></_>
    <_>
      <internalNodes>
        0 -1 152459 -4.6153962612152100e-03</internalNodes>
      <leafValues>
        4.2633756995201111e-01 -1.3909798860549927e-01</leafValues></_>
    <_>
      <internalNodes>
        0 -1 152013 -4.1993707418441772e-02</internalNodes>
      <leafValues>
        3.3565524220466614e-01 -1.5081863105297089e-01</leafValues></_>
    <_>
      <internalNodes>
        0 -1 47035 -7.6980620622634888e-02</internalNodes>
      <leafValues>
        1.8011662364006042e-01 -3.4684392809867859e-01</leafValues></_>
    <_>
      <internalNodes>
        0 -1 40703 3.9803143590688705e-03</internalNodes>
      <leafValues>
        -1.5503980219364166e-01 4.1946393251419067e-01</leafValues></_>
    <_>
      <internalNodes>
        0 -1 126389 3.8802606286481023e-04</internalNodes>
      <leafValues>
        1.0205569863319397e-01 -5.7589334249496460e-01</leafValues></_>
    <_>
      <internalNodes>
        0 -1 49295 6.9795947638340294e-05</internalNodes>
      <leafValues>
        -2.1138754487037659e-01 2.8653654456138611e-01</leafValues></_>
    <_>
      <internalNodes>
        0 -1 52054 -2.2255377843976021e-03</internalNodes>
      <leafValues>
        5.3056621551513672e-01 -1.0089632123708725e-01</leafValues></_>
    <_>
      <internalNodes>
        0 -1 89086 2.2743527370039374e-04</internalNodes>
      <leafValues>
        -1.6665671765804291e-01 3.5458898544311523e-01</leafValues></_>
    <_>
      <internalNodes>
        0 -1 81091 1.3166643679141998e-02</internalNodes>
      <leafValues>
        -1.8097688257694244e-01 3.1750649213790894e-01</leafValues></_>
    <_>
      <internalNodes>
        0 -1 25815 3.6337214987725019e-04</internalNodes>
      <leafValues>
        1.7847244441509247e-01 -2.9894378781318665e-01</leafValues></_>
    <_>
      <internalNodes>
        0 -1 11767 3.5240389406681061e-02</internalNodes>
      <leafValues>
        -1.0182512551546097e-01 5.1538658142089844e-01</leafValues></_>
    <_>
      <internalNodes>
        0 -1 12870 1.8112407997250557e-02</internalNodes>
      <leafValues>
        7.7333621680736542e-02 -8.1098282337188721e-01</leafValues></_>
    <_>
      <internalNodes>
        0 -1 123525 -3.5133436904288828e-04</internalNodes>
      <leafValues>
        3.1190055608749390e-01 -1.8001860380172729e-01</leafValues></_>
    <_>
      <internalNodes>
        0 -1 131975 -2.7447044849395752e-03</internalNodes>
      <leafValues>
        -6.3268578052520752e-01 9.4679795205593109e-02</leafValues></_></weakClassifiers></stage27>
</opencv_storage>
