<?xml version="1.0"?>
<opencv_storage>
<stage8>
  <maxWeakCount>42</maxWeakCount>
  <stageThreshold>-9.7003322839736938e-01</stageThreshold>
  <weakClassifiers>
    <_>
      <internalNodes>
        0 -1 130015 -3.2081410288810730e-02</internalNodes>
      <leafValues>
        1.5505225956439972e-01 -3.6884155869483948e-01</leafValues></_>
    <_>
      <internalNodes>
        0 -1 2593 -1.2624809145927429e-01</internalNodes>
      <leafValues>
        -9.6774168312549591e-02 6.0846436023712158e-01</leafValues></_>
    <_>
      <internalNodes>
        0 -1 98202 3.2460645306855440e-03</internalNodes>
      <leafValues>
        -1.5159921348094940e-01 2.8807953000068665e-01</leafValues></_>
    <_>
      <internalNodes>
        0 -1 98404 -1.0171459987759590e-02</internalNodes>
      <leafValues>
        -8.9739955961704254e-02 3.5131138563156128e-01</leafValues></_>
    <_>
      <internalNodes>
        0 -1 69652 -1.2539137154817581e-02</internalNodes>
      <leafValues>
        3.2028126716613770e-01 -1.2105996906757355e-01</leafValues></_>
    <_>
      <internalNodes>
        0 -1 157048 -2.4478312116116285e-03</internalNodes>
      <leafValues>
        3.3838042616844177e-01 -9.7079746425151825e-02</leafValues></_>
    <_>
      <internalNodes>
        0 -1 127368 2.5240322574973106e-03</internalNodes>
      <leafValues>
        -9.6562616527080536e-02 3.2949021458625793e-01</leafValues></_>
    <_>
      <internalNodes>
        0 -1 153069 1.4899216592311859e-02</internalNodes>
      <leafValues>
        -8.7132737040519714e-02 3.7352654337882996e-01</leafValues></_>
    <_>
      <internalNodes>
        0 -1 105080 -3.8682841695845127e-03</internalNodes>
      <leafValues>
        6.9085404276847839e-02 -4.2694896459579468e-01</leafValues></_>
    <_>
      <internalNodes>
        0 -1 61242 -3.0619722604751587e-01</internalNodes>
      <leafValues>
        2.7365654706954956e-01 -1.2363518029451370e-01</leafValues></_>
    <_>
      <internalNodes>
        0 -1 38896 5.4264556616544724e-02</internalNodes>
      <leafValues>
        -1.6457067430019379e-01 2.9517400264739990e-01</leafValues></_>
    <_>
      <internalNodes>
        0 -1 50204 -1.2850625440478325e-02</internalNodes>
      <leafValues>
        3.1055110692977905e-01 -1.4963592588901520e-01</leafValues></_>
    <_>
      <internalNodes>
        0 -1 151159 -1.5188192483037710e-03</internalNodes>
      <leafValues>
        2.7217486500740051e-01 -1.0900076478719711e-01</leafValues></_>
    <_>
      <internalNodes>
        0 -1 151791 1.6668878961354494e-03</internalNodes>
      <leafValues>
        -8.2448668777942657e-02 3.4534275531768799e-01</leafValues></_>
    <_>
      <internalNodes>
        0 -1 31917 -3.3831954002380371e-02</internalNodes>
      <leafValues>
        -8.4090930223464966e-01 3.5241421312093735e-02</leafValues></_>
    <_>
      <internalNodes>
        0 -1 148394 -2.3060659877955914e-03</internalNodes>
      <leafValues>
        2.9562410712242126e-01 -1.1195702105760574e-01</leafValues></_>
    <_>
      <internalNodes>
        0 -1 9525 -4.9304235726594925e-03</internalNodes>
      <leafValues>
        3.2862186431884766e-01 -1.0123170167207718e-01</leafValues></_>
    <_>
      <internalNodes>
        0 -1 46596 3.5100916866213083e-03</internalNodes>
      <leafValues>
        -8.8060140609741211e-02 4.4572407007217407e-01</leafValues></_>
    <_>
      <internalNodes>
        0 -1 153662 3.5014813765883446e-03</internalNodes>
      <leafValues>
        4.5526769012212753e-02 -7.5471401214599609e-01</leafValues></_>
    <_>
      <internalNodes>
        0 -1 155186 -6.6194548271596432e-03</internalNodes>
      <leafValues>
        -5.1663823425769806e-02 5.4473769664764404e-01</leafValues></_>
    <_>
      <internalNodes>
        0 -1 14293 3.6018157005310059e-01</internalNodes>
      <leafValues>
        -3.3534947782754898e-02 7.2010332345962524e-01</leafValues></_>
    <_>
      <internalNodes>
        0 -1 103267 -1.7213974206242710e-04</internalNodes>
      <leafValues>
        1.8504419922828674e-01 -1.7352211475372314e-01</leafValues></_>
    <_>
      <internalNodes>
        0 -1 46666 -4.9552209675312042e-03</internalNodes>
      <leafValues>
        2.7897053956985474e-01 -1.0905026644468307e-01</leafValues></_>
    <_>
      <internalNodes>
        0 -1 6441 4.7911098226904869e-03</internalNodes>
      <leafValues>
        8.5337579250335693e-02 -3.6426499485969543e-01</leafValues></_>
    <_>
      <internalNodes>
        0 -1 43494 -2.9080950189381838e-03</internalNodes>
      <leafValues>
        -3.1337991356849670e-01 8.4269218146800995e-02</leafValues></_>
    <_>
      <internalNodes>
        0 -1 123126 -7.9918578267097473e-03</internalNodes>
      <leafValues>
        4.3258363008499146e-01 -8.0293402075767517e-02</leafValues></_>
    <_>
      <internalNodes>
        0 -1 128002 -2.2993385791778564e-03</internalNodes>
      <leafValues>
        3.3395254611968994e-01 -7.8595586121082306e-02</leafValues></_>
    <_>
      <internalNodes>
        0 -1 127879 2.4630506522953510e-03</internalNodes>
      <leafValues>
        -1.2191852182149887e-01 2.2327937185764313e-01</leafValues></_>
    <_>
      <internalNodes>
        0 -1 95635 -6.8889465183019638e-04</internalNodes>
      <leafValues>
        -6.1210662126541138e-01 4.2141668498516083e-02</leafValues></_>
    <_>
      <internalNodes>
        0 -1 89441 -1.3400543248280883e-03</internalNodes>
      <leafValues>
        2.5583660602569580e-01 -1.0606633871793747e-01</leafValues></_>
    <_>
      <internalNodes>
        0 -1 89684 2.2439565509557724e-04</internalNodes>
      <leafValues>
        -1.2182712554931641e-01 2.5086483359336853e-01</leafValues></_>
    <_>
      <internalNodes>
        0 -1 104399 7.7550255809910595e-05</internalNodes>
      <leafValues>
        -1.4460523426532745e-01 1.8032306432723999e-01</leafValues></_>
    <_>
      <internalNodes>
        0 -1 21562 -8.8274542940780520e-04</internalNodes>
      <leafValues>
        -5.2597123384475708e-01 4.8970606178045273e-02</leafValues></_>
    <_>
      <internalNodes>
        0 -1 114739 -5.0791818648576736e-03</internalNodes>
      <leafValues>
        2.7864247560501099e-01 -1.0217116773128510e-01</leafValues></_>
    <_>
      <internalNodes>
        0 -1 134011 9.1393489856272936e-04</internalNodes>
      <leafValues>
        -1.6932661831378937e-01 1.8697485327720642e-01</leafValues></_>
    <_>
      <internalNodes>
        0 -1 142395 -1.3259833394840825e-05</internalNodes>
      <leafValues>
        1.6118426620960236e-01 -1.6245129704475403e-01</leafValues></_>
    <_>
      <internalNodes>
        0 -1 146969 2.3820116184651852e-03</internalNodes>
      <leafValues>
        6.9847866892814636e-02 -4.0617376565933228e-01</leafValues></_>
    <_>
      <internalNodes>
        0 -1 40266 3.1544916331768036e-02</internalNodes>
      <leafValues>
        -9.5003038644790649e-02 3.1342476606369019e-01</leafValues></_>
    <_>
      <internalNodes>
        0 -1 1081 -2.5767505168914795e-01</internalNodes>
      <leafValues>
        1.9966766238212585e-01 -1.2815667688846588e-01</leafValues></_>
    <_>
      <internalNodes>
        0 -1 11741 2.3645325563848019e-03</internalNodes>
      <leafValues>
        -1.1205045133829117e-01 2.4999849498271942e-01</leafValues></_>
    <_>
      <internalNodes>
        0 -1 88188 -7.0159144699573517e-02</internalNodes>
      <leafValues>
        2.6163968443870544e-01 -1.1454554647207260e-01</leafValues></_>
    <_>
      <internalNodes>
        0 -1 44451 -3.3930377103388309e-03</internalNodes>
      <leafValues>
        2.9946288466453552e-01 -1.1602780222892761e-01</leafValues></_></weakClassifiers></stage8>
</opencv_storage>
