<?xml version="1.0"?>
<opencv_storage>
<stage7>
  <maxWeakCount>17</maxWeakCount>
  <stageThreshold>-9.5803123712539673e-01</stageThreshold>
  <weakClassifiers>
    <_>
      <internalNodes>
        0 -1 1646 -6.0728136450052261e-02</internalNodes>
      <leafValues>
        -9.8191216588020325e-02 8.1981980800628662e-01</leafValues></_>
    <_>
      <internalNodes>
        0 -1 105623 -7.5431980192661285e-02</internalNodes>
      <leafValues>
        3.7598845362663269e-01 -2.3315533995628357e-01</leafValues></_>
    <_>
      <internalNodes>
        0 -1 11536 -2.7080848813056946e-02</internalNodes>
      <leafValues>
        7.0244485139846802e-01 -1.2514683604240417e-01</leafValues></_>
    <_>
      <internalNodes>
        0 -1 11098 1.6196244396269321e-03</internalNodes>
      <leafValues>
        -2.1574030816555023e-01 3.7249085307121277e-01</leafValues></_>
    <_>
      <internalNodes>
        0 -1 154829 1.9085869193077087e-02</internalNodes>
      <leafValues>
        -2.2295509278774261e-01 4.1065451502799988e-01</leafValues></_>
    <_>
      <internalNodes>
        0 -1 128345 6.1176568269729614e-03</internalNodes>
      <leafValues>
        -1.9369277358055115e-01 3.6935898661613464e-01</leafValues></_>
    <_>
      <internalNodes>
        0 -1 128211 -3.2124076969921589e-03</internalNodes>
      <leafValues>
        4.4721874594688416e-01 -2.0423841476440430e-01</leafValues></_>
    <_>
      <internalNodes>
        0 -1 130592 9.2179351486265659e-04</internalNodes>
      <leafValues>
        1.1003975570201874e-01 -7.7838706970214844e-01</leafValues></_>
    <_>
      <internalNodes>
        0 -1 89774 -1.5706725418567657e-02</internalNodes>
      <leafValues>
        -2.6037567853927612e-01 2.9426878690719604e-01</leafValues></_>
    <_>
      <internalNodes>
        0 -1 146404 -9.1256778687238693e-03</internalNodes>
      <leafValues>
        1.3455754518508911e-01 -6.3754802942276001e-01</leafValues></_>
    <_>
      <internalNodes>
        0 -1 126392 7.5408793054521084e-04</internalNodes>
      <leafValues>
        8.9356243610382080e-02 -6.3389867544174194e-01</leafValues></_>
    <_>
      <internalNodes>
        0 -1 129608 2.2865096107125282e-02</internalNodes>
      <leafValues>
        -1.5048608183860779e-01 5.3362876176834106e-01</leafValues></_>
    <_>
      <internalNodes>
        0 -1 145407 2.0539262332022190e-03</internalNodes>
      <leafValues>
        -1.5559569001197815e-01 5.1419752836227417e-01</leafValues></_>
    <_>
      <internalNodes>
        0 -1 147270 -2.4393191561102867e-03</internalNodes>
      <leafValues>
        -4.0029999613761902e-01 1.7745715379714966e-01</leafValues></_>
    <_>
      <internalNodes>
        0 -1 60370 1.3021393679082394e-03</internalNodes>
      <leafValues>
        -1.7988561093807220e-01 3.6268374323844910e-01</leafValues></_>
    <_>
      <internalNodes>
        0 -1 25744 -8.0808298662304878e-03</internalNodes>
      <leafValues>
        3.6878049373626709e-01 -2.1408492326736450e-01</leafValues></_>
    <_>
      <internalNodes>
        0 -1 77332 2.1034418605268002e-03</internalNodes>
      <leafValues>
        1.1671747267246246e-01 -6.9095259904861450e-01</leafValues></_></weakClassifiers></stage7>
</opencv_storage>
