<?xml version="1.0"?>
<opencv_storage>
<stage4>
  <maxWeakCount>12</maxWeakCount>
  <stageThreshold>-7.7244985103607178e-01</stageThreshold>
  <weakClassifiers>
    <_>
      <internalNodes>
        0 -1 122720 -4.8004716634750366e-02</internalNodes>
      <leafValues>
        6.6666668653488159e-01 -1.9282510876655579e-01</leafValues></_>
    <_>
      <internalNodes>
        0 -1 111528 -1.5980771277099848e-03</internalNodes>
      <leafValues>
        -7.5795084238052368e-01 1.5006557106971741e-01</leafValues></_>
    <_>
      <internalNodes>
        0 -1 149712 1.3635959476232529e-03</internalNodes>
      <leafValues>
        -1.7774610221385956e-01 5.2431470155715942e-01</leafValues></_>
    <_>
      <internalNodes>
        0 -1 97834 -6.4278133213520050e-02</internalNodes>
      <leafValues>
        6.2410259246826172e-01 -1.9841270148754120e-01</leafValues></_>
    <_>
      <internalNodes>
        0 -1 81597 -7.3429272742941976e-04</internalNodes>
      <leafValues>
        3.2756137847900391e-01 -2.5344207882881165e-01</leafValues></_>
    <_>
      <internalNodes>
        0 -1 8894 -2.1399136632680893e-02</internalNodes>
      <leafValues>
        5.5959403514862061e-01 -1.6199806332588196e-01</leafValues></_>
    <_>
      <internalNodes>
        0 -1 8924 6.4502623863518238e-03</internalNodes>
      <leafValues>
        -2.9175400733947754e-01 3.9486679434776306e-01</leafValues></_>
    <_>
      <internalNodes>
        0 -1 131401 -3.7207906134426594e-03</internalNodes>
      <leafValues>
        -9.3969243764877319e-01 1.3428983092308044e-01</leafValues></_>
    <_>
      <internalNodes>
        0 -1 21609 -2.6382920332252979e-03</internalNodes>
      <leafValues>
        5.5464583635330200e-01 -1.8965101242065430e-01</leafValues></_>
    <_>
      <internalNodes>
        0 -1 99188 2.4199854582548141e-02</internalNodes>
      <leafValues>
        -1.9075155258178711e-01 5.1617628335952759e-01</leafValues></_>
    <_>
      <internalNodes>
        0 -1 159476 1.7681464552879333e-02</internalNodes>
      <leafValues>
        -2.2140474617481232e-01 5.6046652793884277e-01</leafValues></_>
    <_>
      <internalNodes>
        0 -1 33098 4.2782109230756760e-03</internalNodes>
      <leafValues>
        1.3455931842327118e-01 -8.3247566223144531e-01</leafValues></_></weakClassifiers></stage4>
</opencv_storage>
