<?xml version="1.0"?>
<opencv_storage>
<stage25>
  <maxWeakCount>24</maxWeakCount>
  <stageThreshold>-7.7811896800994873e-01</stageThreshold>
  <weakClassifiers>
    <_>
      <internalNodes>
        0 -1 98832 1.2510713189840317e-02</internalNodes>
      <leafValues>
        1.2827585637569427e-01 -4.8750001192092896e-01</leafValues></_>
    <_>
      <internalNodes>
        0 -1 73069 3.0500555294565856e-04</internalNodes>
      <leafValues>
        -1.6755014657974243e-01 4.0594437718391418e-01</leafValues></_>
    <_>
      <internalNodes>
        0 -1 161531 1.9942998187616467e-04</internalNodes>
      <leafValues>
        1.9443684816360474e-01 -2.5746926665306091e-01</leafValues></_>
    <_>
      <internalNodes>
        0 -1 109437 1.3424973003566265e-03</internalNodes>
      <leafValues>
        -2.2656857967376709e-01 2.6643779873847961e-01</leafValues></_>
    <_>
      <internalNodes>
        0 -1 81517 -6.9542217534035444e-04</internalNodes>
      <leafValues>
        3.5716122388839722e-01 -1.5297046303749084e-01</leafValues></_>
    <_>
      <internalNodes>
        0 -1 18018 1.1471081234049052e-04</internalNodes>
      <leafValues>
        1.5656298398971558e-01 -3.0080655217170715e-01</leafValues></_>
    <_>
      <internalNodes>
        0 -1 127850 -6.7724725231528282e-03</internalNodes>
      <leafValues>
        7.2545999288558960e-01 -4.9067754298448563e-02</leafValues></_>
    <_>
      <internalNodes>
        0 -1 106688 1.5440647257491946e-04</internalNodes>
      <leafValues>
        -2.0501649379730225e-01 2.8685227036476135e-01</leafValues></_>
    <_>
      <internalNodes>
        0 -1 60540 3.0160769820213318e-03</internalNodes>
      <leafValues>
        -1.7076669633388519e-01 2.9967579245567322e-01</leafValues></_>
    <_>
      <internalNodes>
        0 -1 99989 -5.6304861791431904e-03</internalNodes>
      <leafValues>
        -7.4361538887023926e-01 7.3076948523521423e-02</leafValues></_>
    <_>
      <internalNodes>
        0 -1 26532 -1.9752144813537598e-02</internalNodes>
      <leafValues>
        -5.9013932943344116e-01 7.2687149047851563e-02</leafValues></_>
    <_>
      <internalNodes>
        0 -1 81216 1.1140792630612850e-02</internalNodes>
      <leafValues>
        9.3902900815010071e-02 -6.0393720865249634e-01</leafValues></_>
    <_>
      <internalNodes>
        0 -1 159561 -1.9124113023281097e-03</internalNodes>
      <leafValues>
        4.8212781548500061e-01 -1.1772157996892929e-01</leafValues></_>
    <_>
      <internalNodes>
        0 -1 141945 -1.8491860828362405e-04</internalNodes>
      <leafValues>
        2.7517724037170410e-01 -1.9971972703933716e-01</leafValues></_>
    <_>
      <internalNodes>
        0 -1 45589 1.9755754619836807e-03</internalNodes>
      <leafValues>
        7.7104367315769196e-02 -9.2365473508834839e-01</leafValues></_>
    <_>
      <internalNodes>
        0 -1 145117 1.0230708867311478e-02</internalNodes>
      <leafValues>
        -1.1597232520580292e-01 5.9866321086883545e-01</leafValues></_>
    <_>
      <internalNodes>
        0 -1 154847 -3.0817901715636253e-03</internalNodes>
      <leafValues>
        -4.1955015063285828e-01 1.1043403297662735e-01</leafValues></_>
    <_>
      <internalNodes>
        0 -1 120058 -4.3851908296346664e-02</internalNodes>
      <leafValues>
        6.7464143037796021e-01 -7.1013487875461578e-02</leafValues></_>
    <_>
      <internalNodes>
        0 -1 80696 -7.6519134454429150e-03</internalNodes>
      <leafValues>
        -1.4974048733711243e-01 3.3611494302749634e-01</leafValues></_>
    <_>
      <internalNodes>
        0 -1 110769 -6.3674606382846832e-02</internalNodes>
      <leafValues>
        8.4994383156299591e-02 -5.9800797700881958e-01</leafValues></_>
    <_>
      <internalNodes>
        0 -1 155979 -4.2377188801765442e-03</internalNodes>
      <leafValues>
        5.2285021543502808e-01 -1.0027091950178146e-01</leafValues></_>
    <_>
      <internalNodes>
        0 -1 157685 -9.1701233759522438e-04</internalNodes>
      <leafValues>
        -3.7013223767280579e-01 1.3711500167846680e-01</leafValues></_>
    <_>
      <internalNodes>
        0 -1 145802 1.5087190549820662e-03</internalNodes>
      <leafValues>
        -2.0906314253807068e-01 2.4840874969959259e-01</leafValues></_>
    <_>
      <internalNodes>
        0 -1 139477 4.6245704288594425e-04</internalNodes>
      <leafValues>
        1.6671030223369598e-01 -3.2736790180206299e-01</leafValues></_></weakClassifiers></stage25>
</opencv_storage>
