<?xml version="1.0"?>
<opencv_storage>
<stage21>
  <maxWeakCount>7</maxWeakCount>
  <stageThreshold>-9.8124706745147705e-01</stageThreshold>
  <weakClassifiers>
    <_>
      <internalNodes>
        0 -1 155066 2.5792312808334827e-03</internalNodes>
      <leafValues>
        -3.0662021040916443e-01 6.1414790153503418e-01</leafValues></_>
    <_>
      <internalNodes>
        0 -1 88606 -4.6537168323993683e-02</internalNodes>
      <leafValues>
        -2.5934588909149170e-01 6.2181252241134644e-01</leafValues></_>
    <_>
      <internalNodes>
        0 -1 66703 -3.9714964805170894e-04</internalNodes>
      <leafValues>
        6.9773536920547485e-01 -2.3775419592857361e-01</leafValues></_>
    <_>
      <internalNodes>
        0 -1 98663 1.9994971808046103e-03</internalNodes>
      <leafValues>
        -2.6579105854034424e-01 5.4409974813461304e-01</leafValues></_>
    <_>
      <internalNodes>
        0 -1 72317 -7.1916845627129078e-05</internalNodes>
      <leafValues>
        6.1665266752243042e-01 -2.5334507226943970e-01</leafValues></_>
    <_>
      <internalNodes>
        0 -1 156553 1.5988259110599756e-04</internalNodes>
      <leafValues>
        -2.3909378051757813e-01 5.1334178447723389e-01</leafValues></_>
    <_>
      <internalNodes>
        0 -1 51300 -8.7701342999935150e-04</internalNodes>
      <leafValues>
        6.6815847158432007e-01 -1.7173247039318085e-01</leafValues></_></weakClassifiers></stage21>
</opencv_storage>
