<?xml version="1.0"?>
<opencv_storage>
<stage3>
  <maxWeakCount>11</maxWeakCount>
  <stageThreshold>-7.1476590633392334e-01</stageThreshold>
  <weakClassifiers>
    <_>
      <internalNodes>
        0 -1 4435 4.4587589800357819e-02</internalNodes>
      <leafValues>
        -2.3618090152740479e-01 5.4166668653488159e-01</leafValues></_>
    <_>
      <internalNodes>
        0 -1 12847 -1.5821959823369980e-02</internalNodes>
      <leafValues>
        5.6593304872512817e-01 -2.6485869288444519e-01</leafValues></_>
    <_>
      <internalNodes>
        0 -1 146092 4.0470153093338013e-02</internalNodes>
      <leafValues>
        -1.8380585312843323e-01 6.6730237007141113e-01</leafValues></_>
    <_>
      <internalNodes>
        0 -1 146783 -1.7487652599811554e-02</internalNodes>
      <leafValues>
        5.4197734594345093e-01 -3.6722558736801147e-01</leafValues></_>
    <_>
      <internalNodes>
        0 -1 45345 5.7615740224719048e-03</internalNodes>
      <leafValues>
        2.0053152740001678e-01 -8.5880953073501587e-01</leafValues></_>
    <_>
      <internalNodes>
        0 -1 131514 1.7379555851221085e-02</internalNodes>
      <leafValues>
        1.5401223301887512e-01 -7.5079625844955444e-01</leafValues></_>
    <_>
      <internalNodes>
        0 -1 159477 1.5180114656686783e-02</internalNodes>
      <leafValues>
        -2.3818768560886383e-01 4.8608309030532837e-01</leafValues></_>
    <_>
      <internalNodes>
        0 -1 12286 1.4229489490389824e-02</internalNodes>
      <leafValues>
        -1.5216137468814850e-01 7.3837023973464966e-01</leafValues></_>
    <_>
      <internalNodes>
        0 -1 77771 2.6235682889819145e-03</internalNodes>
      <leafValues>
        1.7402590811252594e-01 -7.0505565404891968e-01</leafValues></_>
    <_>
      <internalNodes>
        0 -1 17332 -1.4410726726055145e-02</internalNodes>
      <leafValues>
        7.3752009868621826e-01 -1.4963568747043610e-01</leafValues></_>
    <_>
      <internalNodes>
        0 -1 106886 1.1974398512393236e-03</internalNodes>
      <leafValues>
        -2.6366004347801208e-01 4.7568109631538391e-01</leafValues></_></weakClassifiers></stage3>
</opencv_storage>
