<?xml version="1.0"?>
<opencv_storage>
<stage1>
  <maxWeakCount>7</maxWeakCount>
  <stageThreshold>-4.6038225293159485e-01</stageThreshold>
  <weakClassifiers>
    <_>
      <internalNodes>
        0 -1 122279 -6.0100656002759933e-02</internalNodes>
      <leafValues>
        7.2799998521804810e-01 -2.6299211382865906e-01</leafValues></_>
    <_>
      <internalNodes>
        0 -1 155069 1.0511338710784912e-02</internalNodes>
      <leafValues>
        -3.3766427636146545e-01 5.9195727109909058e-01</leafValues></_>
    <_>
      <internalNodes>
        0 -1 3390 7.1500480175018311e-02</internalNodes>
      <leafValues>
        -2.1799711883068085e-01 7.4445539712905884e-01</leafValues></_>
    <_>
      <internalNodes>
        0 -1 8942 -3.6755599081516266e-02</internalNodes>
      <leafValues>
        7.9708796739578247e-01 -2.2651846706867218e-01</leafValues></_>
    <_>
      <internalNodes>
        0 -1 85402 -7.2921708226203918e-02</internalNodes>
      <leafValues>
        2.6126170158386230e-01 -6.9482022523880005e-01</leafValues></_>
    <_>
      <internalNodes>
        0 -1 59023 -6.5996885299682617e-02</internalNodes>
      <leafValues>
        -7.1024227142333984e-01 1.7834600806236267e-01</leafValues></_>
    <_>
      <internalNodes>
        0 -1 118358 1.4559197006747127e-03</internalNodes>
      <leafValues>
        1.7164239287376404e-01 -7.1433705091476440e-01</leafValues></_></weakClassifiers></stage1>
</opencv_storage>
