<?xml version="1.0"?>
<opencv_storage>
<stage29>
  <maxWeakCount>24</maxWeakCount>
  <stageThreshold>-7.7488160133361816e-01</stageThreshold>
  <weakClassifiers>
    <_>
      <internalNodes>
        0 -1 65504 -2.0595410466194153e-01</internalNodes>
      <leafValues>
        2.1702127158641815e-01 -2.0963855087757111e-01</leafValues></_>
    <_>
      <internalNodes>
        0 -1 63573 5.2865105681121349e-04</internalNodes>
      <leafValues>
        -1.2024063616991043e-01 4.0447747707366943e-01</leafValues></_>
    <_>
      <internalNodes>
        0 -1 71634 -2.0084085408598185e-03</internalNodes>
      <leafValues>
        3.8689646124839783e-01 -1.0432243347167969e-01</leafValues></_>
    <_>
      <internalNodes>
        0 -1 114418 4.7422375064343214e-04</internalNodes>
      <leafValues>
        -2.7496483922004700e-01 2.2356665134429932e-01</leafValues></_>
    <_>
      <internalNodes>
        0 -1 14805 -1.2761380057781935e-03</internalNodes>
      <leafValues>
        2.5164666771888733e-01 -2.0835211873054504e-01</leafValues></_>
    <_>
      <internalNodes>
        0 -1 66284 -2.7883886359632015e-03</internalNodes>
      <leafValues>
        -9.2171818017959595e-01 1.0828933119773865e-01</leafValues></_>
    <_>
      <internalNodes>
        0 -1 143578 1.0559734073467553e-04</internalNodes>
      <leafValues>
        -1.4245083928108215e-01 3.3442556858062744e-01</leafValues></_>
    <_>
      <internalNodes>
        0 -1 157599 1.3944563688710332e-03</internalNodes>
      <leafValues>
        -2.0695409178733826e-01 2.4823693931102753e-01</leafValues></_>
    <_>
      <internalNodes>
        0 -1 159721 -4.9506942741572857e-04</internalNodes>
      <leafValues>
        4.2707630991935730e-01 -1.3798472285270691e-01</leafValues></_>
    <_>
      <internalNodes>
        0 -1 138740 -2.4504074826836586e-02</internalNodes>
      <leafValues>
        4.8560541868209839e-01 -8.9178033173084259e-02</leafValues></_>
    <_>
      <internalNodes>
        0 -1 52123 7.2351470589637756e-03</internalNodes>
      <leafValues>
        -1.0733469575643539e-01 4.7456702589988708e-01</leafValues></_>
    <_>
      <internalNodes>
        0 -1 149639 2.2724294103682041e-04</internalNodes>
      <leafValues>
        -1.0893811285495758e-01 3.8144290447235107e-01</leafValues></_>
    <_>
      <internalNodes>
        0 -1 139685 -8.6463987827301025e-03</internalNodes>
      <leafValues>
        -7.2208940982818604e-01 7.9353123903274536e-02</leafValues></_>
    <_>
      <internalNodes>
        0 -1 155479 4.1249702917411923e-04</internalNodes>
      <leafValues>
        -1.8589803576469421e-01 2.8924441337585449e-01</leafValues></_>
    <_>
      <internalNodes>
        0 -1 122791 -1.2216433882713318e-01</internalNodes>
      <leafValues>
        3.2904645800590515e-01 -2.0178250968456268e-01</leafValues></_>
    <_>
      <internalNodes>
        0 -1 8885 -1.0531472042202950e-02</internalNodes>
      <leafValues>
        2.6988750696182251e-01 -1.8599046766757965e-01</leafValues></_>
    <_>
      <internalNodes>
        0 -1 13047 -9.9222855642437935e-03</internalNodes>
      <leafValues>
        4.1258364915847778e-01 -1.2527117133140564e-01</leafValues></_>
    <_>
      <internalNodes>
        0 -1 80617 1.9389516091905534e-04</internalNodes>
      <leafValues>
        -1.8140746653079987e-01 3.1775996088981628e-01</leafValues></_>
    <_>
      <internalNodes>
        0 -1 1880 -1.0295863449573517e-01</internalNodes>
      <leafValues>
        -5.1963603496551514e-01 9.4555884599685669e-02</leafValues></_>
    <_>
      <internalNodes>
        0 -1 128663 -8.9597643818706274e-04</internalNodes>
      <leafValues>
        4.1676634550094604e-01 -1.1708806455135345e-01</leafValues></_>
    <_>
      <internalNodes>
        0 -1 67339 -1.6443308442831039e-02</internalNodes>
      <leafValues>
        6.5274968743324280e-02 -7.8865987062454224e-01</leafValues></_>
    <_>
      <internalNodes>
        0 -1 2298 -1.0538502596318722e-02</internalNodes>
      <leafValues>
        4.5074129104614258e-01 -1.2342476844787598e-01</leafValues></_>
    <_>
      <internalNodes>
        0 -1 31970 2.9141121194697917e-04</internalNodes>
      <leafValues>
        -3.0584436655044556e-01 1.8965949118137360e-01</leafValues></_>
    <_>
      <internalNodes>
        0 -1 20706 3.9614634588360786e-03</internalNodes>
      <leafValues>
        7.3188371956348419e-02 -7.7618134021759033e-01</leafValues></_></weakClassifiers></stage29>
</opencv_storage>
